<?xml version="1.0"?>
<opencv_storage>
<stage22>
  <maxWeakCount>31</maxWeakCount>
  <stageThreshold>-7.5563156604766846e-01</stageThreshold>
  <weakClassifiers>
    <_>
      <internalNodes>
        0 -1 113827 -1.6556030139327049e-02</internalNodes>
      <leafValues>
        -3.9563439786434174e-02 4.8314607143402100e-01</leafValues></_>
    <_>
      <internalNodes>
        0 -1 55436 -4.2617730796337128e-03</internalNodes>
      <leafValues>
        -3.2755681872367859e-01 1.4144222438335419e-01</leafValues></_>
    <_>
      <internalNodes>
        0 -1 9494 1.1831704527139664e-02</internalNodes>
      <leafValues>
        6.0974165797233582e-02 -6.4552223682403564e-01</leafValues></_>
    <_>
      <internalNodes>
        0 -1 162097 9.0356319560669363e-05</internalNodes>
      <leafValues>
        -2.6676952838897705e-01 1.4856214821338654e-01</leafValues></_>
    <_>
      <internalNodes>
        0 -1 44002 -7.0487502962350845e-03</internalNodes>
      <leafValues>
        2.3763753473758698e-01 -1.8594491481781006e-01</leafValues></_>
    <_>
      <internalNodes>
        0 -1 151336 -7.5452919118106365e-03</internalNodes>
      <leafValues>
        9.3664795160293579e-02 -4.2599824070930481e-01</leafValues></_>
    <_>
      <internalNodes>
        0 -1 55203 5.3154258057475090e-03</internalNodes>
      <leafValues>
        -1.1742935329675674e-01 3.3068385720252991e-01</leafValues></_>
    <_>
      <internalNodes>
        0 -1 94871 -5.7146213948726654e-03</internalNodes>
      <leafValues>
        -8.2521289587020874e-01 3.5443987697362900e-02</leafValues></_>
    <_>
      <internalNodes>
        0 -1 161587 1.1019399244105443e-04</internalNodes>
      <leafValues>
        -1.6693367063999176e-01 2.4554859101772308e-01</leafValues></_>
    <_>
      <internalNodes>
        0 -1 143877 1.1637086048722267e-02</internalNodes>
      <leafValues>
        -1.0821980983018875e-01 4.1622728109359741e-01</leafValues></_>
    <_>
      <internalNodes>
        0 -1 8885 -1.0080695152282715e-02</internalNodes>
      <leafValues>
        2.2763578593730927e-01 -2.0370396971702576e-01</leafValues></_>
    <_>
      <internalNodes>
        0 -1 45848 -3.0008116364479065e-01</internalNodes>
      <leafValues>
        -7.3503202199935913e-01 3.9206121116876602e-02</leafValues></_>
    <_>
      <internalNodes>
        0 -1 13110 -2.2567313164472580e-02</internalNodes>
      <leafValues>
        3.5653793811798096e-01 -1.2997257709503174e-01</leafValues></_>
    <_>
      <internalNodes>
        0 -1 114421 5.7470466708764434e-04</internalNodes>
      <leafValues>
        -1.5102359652519226e-01 2.9752126336097717e-01</leafValues></_>
    <_>
      <internalNodes>
        0 -1 159643 -5.6788805522955954e-05</internalNodes>
      <leafValues>
        2.2800897061824799e-01 -2.0373025536537170e-01</leafValues></_>
    <_>
      <internalNodes>
        0 -1 72538 -1.9924631342291832e-02</internalNodes>
      <leafValues>
        9.9943362176418304e-02 -5.4856240749359131e-01</leafValues></_>
    <_>
      <internalNodes>
        0 -1 137739 -1.4588567614555359e-01</internalNodes>
      <leafValues>
        -3.3763870596885681e-01 1.3003848493099213e-01</leafValues></_>
    <_>
      <internalNodes>
        0 -1 11068 -3.2280806917697191e-03</internalNodes>
      <leafValues>
        9.0816542506217957e-02 -5.0593554973602295e-01</leafValues></_>
    <_>
      <internalNodes>
        0 -1 26652 5.6947484612464905e-02</internalNodes>
      <leafValues>
        -1.0985540598630905e-01 4.0560138225555420e-01</leafValues></_>
    <_>
      <internalNodes>
        0 -1 139271 3.5123974084854126e-03</internalNodes>
      <leafValues>
        -9.0214230120182037e-02 4.6574199199676514e-01</leafValues></_>
    <_>
      <internalNodes>
        0 -1 156339 -8.5347983986139297e-03</internalNodes>
      <leafValues>
        -5.7800460606813431e-02 6.0086357593536377e-01</leafValues></_>
    <_>
      <internalNodes>
        0 -1 85857 2.3819748312234879e-02</internalNodes>
      <leafValues>
        -6.9508634507656097e-02 6.6344517469406128e-01</leafValues></_>
    <_>
      <internalNodes>
        0 -1 127941 -7.9492875374853611e-04</internalNodes>
      <leafValues>
        3.4941458702087402e-01 -1.2429762631654739e-01</leafValues></_>
    <_>
      <internalNodes>
        0 -1 151793 1.5724324621260166e-03</internalNodes>
      <leafValues>
        -1.0518289357423782e-01 3.8044673204421997e-01</leafValues></_>
    <_>
      <internalNodes>
        0 -1 106713 -3.6057472229003906e-02</internalNodes>
      <leafValues>
        -1.8513146042823792e-01 2.3159576952457428e-01</leafValues></_>
    <_>
      <internalNodes>
        0 -1 78683 -1.5860246494412422e-02</internalNodes>
      <leafValues>
        5.2531223744153976e-02 -6.5692484378814697e-01</leafValues></_>
    <_>
      <internalNodes>
        0 -1 125761 -1.9649572670459747e-02</internalNodes>
      <leafValues>
        5.5306667089462280e-01 -7.9994596540927887e-02</leafValues></_>
    <_>
      <internalNodes>
        0 -1 106097 -2.1638232283294201e-03</internalNodes>
      <leafValues>
        -9.3046240508556366e-02 4.2604473233222961e-01</leafValues></_>
    <_>
      <internalNodes>
        0 -1 15523 -3.6393869668245316e-02</internalNodes>
      <leafValues>
        1.2605348229408264e-01 -3.4686347842216492e-01</leafValues></_>
    <_>
      <internalNodes>
        0 -1 42244 -1.2621885538101196e-01</internalNodes>
      <leafValues>
        -4.6292254328727722e-01 9.7795821726322174e-02</leafValues></_>
    <_>
      <internalNodes>
        0 -1 2231 2.9885359108448029e-02</internalNodes>
      <leafValues>
        -5.5074583739042282e-02 8.8684087991714478e-01</leafValues></_></weakClassifiers></stage22>
</opencv_storage>
