<?xml version="1.0"?>
<opencv_storage>
<stage5>
  <maxWeakCount>8</maxWeakCount>
  <stageThreshold>-8.6703550815582275e-01</stageThreshold>
  <weakClassifiers>
    <_>
      <internalNodes>
        0 -1 41473 -3.0669885873794556e-01</internalNodes>
      <leafValues>
        4.4324323534965515e-01 -8.7692308425903320e-01</leafValues></_>
    <_>
      <internalNodes>
        0 -1 69220 -9.6326425671577454e-02</internalNodes>
      <leafValues>
        3.9268395304679871e-01 -5.8245897293090820e-01</leafValues></_>
    <_>
      <internalNodes>
        0 -1 159712 6.5081112552434206e-04</internalNodes>
      <leafValues>
        -4.7846251726150513e-01 3.4813204407691956e-01</leafValues></_>
    <_>
      <internalNodes>
        0 -1 9446 8.6524424841627479e-04</internalNodes>
      <leafValues>
        -3.0787751078605652e-01 4.6927702426910400e-01</leafValues></_>
    <_>
      <internalNodes>
        0 -1 81734 2.1294027101248503e-03</internalNodes>
      <leafValues>
        -2.3364669084548950e-01 6.1798691749572754e-01</leafValues></_>
    <_>
      <internalNodes>
        0 -1 127848 4.8934866208583117e-04</internalNodes>
      <leafValues>
        -1.7367713153362274e-01 8.1294542551040649e-01</leafValues></_>
    <_>
      <internalNodes>
        0 -1 49340 -3.5127317532896996e-03</internalNodes>
      <leafValues>
        6.8295252323150635e-01 -1.9869445264339447e-01</leafValues></_>
    <_>
      <internalNodes>
        0 -1 160996 -1.1531482450664043e-03</internalNodes>
      <leafValues>
        7.1003127098083496e-01 -1.6205604374408722e-01</leafValues></_></weakClassifiers></stage5>
</opencv_storage>
