<?xml version="1.0"?>
<opencv_storage>
<stage6>
  <maxWeakCount>13</maxWeakCount>
  <stageThreshold>-8.6014223098754883e-01</stageThreshold>
  <weakClassifiers>
    <_>
      <internalNodes>
        0 -1 15284 -4.2174106836318970e-01</internalNodes>
      <leafValues>
        3.8793104887008667e-01 -5.5921053886413574e-01</leafValues></_>
    <_>
      <internalNodes>
        0 -1 61084 8.1688109785318375e-03</internalNodes>
      <leafValues>
        -2.2790735960006714e-01 6.9242936372756958e-01</leafValues></_>
    <_>
      <internalNodes>
        0 -1 161849 2.5994763709604740e-03</internalNodes>
      <leafValues>
        -2.6454871892929077e-01 4.4796761870384216e-01</leafValues></_>
    <_>
      <internalNodes>
        0 -1 10031 -3.2840743660926819e-03</internalNodes>
      <leafValues>
        5.1708561182022095e-01 -2.7232372760772705e-01</leafValues></_>
    <_>
      <internalNodes>
        0 -1 23186 -5.5100256577134132e-04</internalNodes>
      <leafValues>
        6.0464358329772949e-01 -1.5154467523097992e-01</leafValues></_>
    <_>
      <internalNodes>
        0 -1 23186 1.6538237105123699e-04</internalNodes>
      <leafValues>
        -2.5410574674606323e-01 3.9531740546226501e-01</leafValues></_>
    <_>
      <internalNodes>
        0 -1 97875 -3.9251282811164856e-02</internalNodes>
      <leafValues>
        3.0738389492034912e-01 -3.8686156272888184e-01</leafValues></_>
    <_>
      <internalNodes>
        0 -1 99625 5.7091731578111649e-03</internalNodes>
      <leafValues>
        -2.1713677048683167e-01 6.2052226066589355e-01</leafValues></_>
    <_>
      <internalNodes>
        0 -1 13366 7.0237577892839909e-04</internalNodes>
      <leafValues>
        -2.8486278653144836e-01 4.3070065975189209e-01</leafValues></_>
    <_>
      <internalNodes>
        0 -1 127863 -2.6152059435844421e-03</internalNodes>
      <leafValues>
        4.3939411640167236e-01 -2.3983804881572723e-01</leafValues></_>
    <_>
      <internalNodes>
        0 -1 37199 -5.6609808234497905e-04</internalNodes>
      <leafValues>
        6.4947420358657837e-01 -1.4037381112575531e-01</leafValues></_>
    <_>
      <internalNodes>
        0 -1 53544 8.1677678972482681e-03</internalNodes>
      <leafValues>
        1.8641714751720428e-01 -6.1257576942443848e-01</leafValues></_>
    <_>
      <internalNodes>
        0 -1 59497 -1.8344281706959009e-03</internalNodes>
      <leafValues>
        7.6785033941268921e-01 -1.7017093300819397e-01</leafValues></_></weakClassifiers></stage6>
</opencv_storage>
