<?xml version="1.0"?>
<opencv_storage>
<stage2>
  <maxWeakCount>8</maxWeakCount>
  <stageThreshold>-8.1957125663757324e-01</stageThreshold>
  <weakClassifiers>
    <_>
      <internalNodes>
        0 -1 10075 -7.2707906365394592e-03</internalNodes>
      <leafValues>
        7.9000002145767212e-01 -3.6000001430511475e-01</leafValues></_>
    <_>
      <internalNodes>
        0 -1 161843 -1.3976478949189186e-03</internalNodes>
      <leafValues>
        8.0091011524200439e-01 -2.9706880450248718e-01</leafValues></_>
    <_>
      <internalNodes>
        0 -1 147786 1.1449517682194710e-02</internalNodes>
      <leafValues>
        -2.6672190427780151e-01 6.9524723291397095e-01</leafValues></_>
    <_>
      <internalNodes>
        0 -1 155210 -1.2092308606952429e-03</internalNodes>
      <leafValues>
        -2.6401787996292114e-01 7.8131318092346191e-01</leafValues></_>
    <_>
      <internalNodes>
        0 -1 26806 -5.2831411361694336e-01</internalNodes>
      <leafValues>
        -7.9958713054656982e-01 2.7533486485481262e-01</leafValues></_>
    <_>
      <internalNodes>
        0 -1 13183 -4.3245102278888226e-04</internalNodes>
      <leafValues>
        5.5461931228637695e-01 -4.0655705332756042e-01</leafValues></_>
    <_>
      <internalNodes>
        0 -1 160624 -1.0646169539541006e-03</internalNodes>
      <leafValues>
        8.2887911796569824e-01 -2.0391739904880524e-01</leafValues></_>
    <_>
      <internalNodes>
        0 -1 161363 4.4751716777682304e-03</internalNodes>
      <leafValues>
        -2.4594633281230927e-01 7.0337694883346558e-01</leafValues></_></weakClassifiers></stage2>
</opencv_storage>
